4 13
glory -0.031208 0.024294 -0.031433 -0.028102 0.037222 0.072109 0.033410 -0.018213 -0.108818 -0.060907 -0.021944 -0.090031 0.029153
to -0.009059 0.030460 0.001610 -0.012177 0.034042 0.090035 -0.030524 0.002298 -0.027292 0.002591 -0.020886 -0.006685 -0.137905
Ukraine 0.009177 0.041336 0.003899 -0.027610 -0.034803 0.005836 -0.101860 -0.016560 -0.062649 0.037060 -0.056115 0.008729 -0.052661
! -0.061119 0.060100 0.079129 -0.034134 0.113729 0.055199 0.012795 -0.024780 -0.079385 -0.028601 0.107835 -0.088577 -0.020732